net
{
	node_size = (130 55);
}

node ThisCarCost
{
	states = ("Thousand" "TenThou" "HundredThou" "Million" );
	position = (282 3);
	excludepolicy = "include whole CPT";
	ismapvariable = "false";
	diagnosistype = "AUXILIARY";
}
node VehicleYear
{
	states = ("Current" "Older" );
	position = (558 -54);
	excludepolicy = "include whole CPT";
	ismapvariable = "false";
	diagnosistype = "AUXILIARY";
}
node MedCost
{
	states = ("Thousand" "TenThou" "HundredThou" "Million" );
	position = (561 -214);
	excludepolicy = "include whole CPT";
	ismapvariable = "false";
	diagnosistype = "AUXILIARY";
}
node RuggedAuto
{
	states = ("EggShell" "Football" "Tank" );
	position = (83 -251);
	excludepolicy = "include whole CPT";
	ismapvariable = "false";
	diagnosistype = "AUXILIARY";
}
node DrivHist
{
	states = ("Zero" "One" "Many" );
	position = (390 -283);
	excludepolicy = "include whole CPT";
	ismapvariable = "false";
	diagnosistype = "AUXILIARY";
}
node HomeBase
{
	states = ("Secure" "City" "Suburb" "Rural" );
	position = (874 -106);
	excludepolicy = "include whole CPT";
	ismapvariable = "false";
	diagnosistype = "AUXILIARY";
}
node ThisCarDam
{
	states = ("None" "Mild" "Moderate" "Severe" );
	position = (916 -203);
	excludepolicy = "include whole CPT";
	ismapvariable = "false";
	diagnosistype = "AUXILIARY";
}
node Antilock
{
	states = ("True" "False" );
	position = (958 -352);
	excludepolicy = "include whole CPT";
	ismapvariable = "false";
	diagnosistype = "AUXILIARY";
}
node OtherCarCost
{
	states = ("Thousand" "TenThou" "HundredThou" "Million" );
	position = (864 -438);
	excludepolicy = "include whole CPT";
	ismapvariable = "false";
	diagnosistype = "AUXILIARY";
}
node SocioEcon
{
	states = ("Prole" "Middle" "UpperMiddle" "Wealthy" );
	position = (681 -522);
	excludepolicy = "include whole CPT";
	ismapvariable = "false";
	diagnosistype = "AUXILIARY";
}
node Airbag
{
	states = ("True" "False" );
	position = (342 -526);
	excludepolicy = "include whole CPT";
	ismapvariable = "false";
	diagnosistype = "AUXILIARY";
}
node AntiTheft
{
	states = ("True" "False" );
	position = (91 -505);
	excludepolicy = "include whole CPT";
	ismapvariable = "false";
	diagnosistype = "AUXILIARY";
}
node SeniorTrain
{
	states = ("True" "False" );
	position = (607 -639);
	excludepolicy = "include whole CPT";
	ismapvariable = "false";
	diagnosistype = "AUXILIARY";
}
node GoodStudent
{
	states = ("True" "False" );
	position = (918 -628);
	excludepolicy = "include whole CPT";
	ismapvariable = "false";
	diagnosistype = "AUXILIARY";
}
node Age
{
	states = ("Adolescent" "Adult" "Senior" );
	position = (1140 -412);
	excludepolicy = "include whole CPT";
	ismapvariable = "false";
	diagnosistype = "AUXILIARY";
}
node PropCost
{
	states = ("Thousand" "TenThou" "HundredThou" "Million" );
	position = (1143 -125);
	excludepolicy = "include whole CPT";
	ismapvariable = "false";
	diagnosistype = "AUXILIARY";
}
node Mileage
{
	states = ("FiveThou" "TwentyThou" "FiftyThou" "Domino" );
	position = (1286 -228);
	excludepolicy = "include whole CPT";
	ismapvariable = "false";
	diagnosistype = "AUXILIARY";
}
node ILiCost
{
	states = ("Thousand" "TenThou" "HundredThou" "Million" );
	position = (1179 -302);
	excludepolicy = "include whole CPT";
	ismapvariable = "false";
	diagnosistype = "AUXILIARY";
}
node DrivingSkill
{
	states = ("SubStandard" "Normal" "Expert" );
	position = (1380 -525);
	excludepolicy = "include whole CPT";
	ismapvariable = "false";
	diagnosistype = "AUXILIARY";
}
node DrivQuality
{
	states = ("Poor" "Normal" "Excellent" );
	position = (0 0);
	excludepolicy = "include whole CPT";
	ismapvariable = "false";
	diagnosistype = "AUXILIARY";
}
node Accident
{
	states = ("None" "Mild" "Moderate" "Severe" );
	position = (0 0);
	excludepolicy = "include whole CPT";
	ismapvariable = "false";
	diagnosistype = "AUXILIARY";
}
node Theft
{
	states = ("True" "False" );
	position = (0 0);
	excludepolicy = "include whole CPT";
	ismapvariable = "false";
	diagnosistype = "AUXILIARY";
}
node Cushioning
{
	states = ("Poor" "Fair" "Good" "Excellent" );
	position = (0 0);
	excludepolicy = "include whole CPT";
	ismapvariable = "false";
	diagnosistype = "AUXILIARY";
}
node RiskAversion
{
	states = ("Psychopath" "Adventurous" "Normal" "Cautious" );
	position = (0 0);
	excludepolicy = "include whole CPT";
	ismapvariable = "false";
	diagnosistype = "AUXILIARY";
}
node OtherCar
{
	states = ("True" "False" );
	position = (0 0);
	excludepolicy = "include whole CPT";
	ismapvariable = "false";
	diagnosistype = "AUXILIARY";
}
node CarValue
{
	states = ("FiveThou" "TenThou" "TwentyThou" "FiftyThou" "Million" );
	position = (0 0);
	excludepolicy = "include whole CPT";
	ismapvariable = "false";
	diagnosistype = "AUXILIARY";
}
node MakeModel
{
	states = ("SportsCar" "Economy" "FamilySedan" "Luxury" "SuperLuxury" );
	position = (0 0);
	excludepolicy = "include whole CPT";
	ismapvariable = "false";
	diagnosistype = "AUXILIARY";
}
potential ( ThisCarCost | ThisCarDam CarValue Theft )
{
	data = ((((	0.2	0.8	0.0	0.0	)
		(	1.0	0.0	0.0	0.0	))
		((	0.05	0.95	0.0	0.0	)
		(	1.0	0.0	0.0	0.0	))
		((	0.04	0.01	0.95	0.0	)
		(	1.0	0.0	0.0	0.0	))
		((	0.04	0.01	0.95	0.0	)
		(	1.0	0.0	0.0	0.0	))
		((	0.04	0.01	0.2	0.75	)
		(	1.0	0.0	0.0	0.0	)))
		(((	0.15	0.85	0.0	0.0	)
		(	0.95	0.05	0.0	0.0	))
		((	0.03	0.97	0.0	0.0	)
		(	0.95	0.05	0.0	0.0	))
		((	0.03	0.02	0.95	0.0	)
		(	0.99	0.01	0.0	0.0	))
		((	0.03	0.02	0.95	0.0	)
		(	0.99	0.01	0.0	0.0	))
		((	0.02	0.03	0.25	0.7	)
		(	0.98	0.01	0.01	0.0	)))
		(((	0.05	0.95	0.0	0.0	)
		(	0.25	0.75	0.0	0.0	))
		((	0.01	0.99	0.0	0.0	)
		(	0.15	0.85	0.0	0.0	))
		((	0.001	0.001	0.998	0.0	)
		(	0.01	0.01	0.98	0.0	))
		((	0.001	0.001	0.998	0.0	)
		(	0.005	0.005	0.99	0.0	))
		((	0.001	0.001	0.018	0.98	)
		(	0.003	0.003	0.044	0.95	)))
		(((	0.03	0.97	0.0	0.0	)
		(	0.05	0.95	0.0	0.0	))
		((	1.0E-6	0.999999	0.0	0.0	)
		(	0.01	0.99	0.0	0.0	))
		((	1.0E-6	1.0E-6	0.999998	0.0	)
		(	0.005	0.005	0.99	0.0	))
		((	1.0E-6	1.0E-6	0.999998	0.0	)
		(	0.001	0.001	0.998	0.0	))
		((	1.0E-6	1.0E-6	0.009998	0.99	)
		(	1.0E-6	1.0E-6	0.029998	0.97	))));
}
potential ( VehicleYear | SocioEcon RiskAversion )
{
	data = (((	0.15	0.85	)
		(	0.15	0.85	)
		(	0.15	0.85	)
		(	0.15	0.85	))
		((	0.3	0.7	)
		(	0.3	0.7	)
		(	0.3	0.7	)
		(	0.3	0.7	))
		((	0.8	0.2	)
		(	0.8	0.2	)
		(	0.8	0.2	)
		(	0.8	0.2	))
		((	0.9	0.1	)
		(	0.9	0.1	)
		(	0.9	0.1	)
		(	0.9	0.1	)));
}
potential ( MedCost | Accident Age Cushioning )
{
	data = ((((	1.0	0.0	0.0	0.0	)
		(	1.0	0.0	0.0	0.0	)
		(	1.0	0.0	0.0	0.0	)
		(	1.0	0.0	0.0	0.0	))
		((	1.0	0.0	0.0	0.0	)
		(	1.0	0.0	0.0	0.0	)
		(	1.0	0.0	0.0	0.0	)
		(	1.0	0.0	0.0	0.0	))
		((	1.0	0.0	0.0	0.0	)
		(	1.0	0.0	0.0	0.0	)
		(	1.0	0.0	0.0	0.0	)
		(	1.0	0.0	0.0	0.0	)))
		(((	0.96	0.03	0.009	0.001	)
		(	0.98	0.019	9.0E-4	1.0E-4	)
		(	0.99	0.0099	9.0E-5	1.0E-5	)
		(	0.999	9.9E-4	9.0E-6	1.0E-6	))
		((	0.96	0.03	0.009	0.001	)
		(	0.98	0.019	9.0E-4	1.0E-4	)
		(	0.99	0.0099	9.0E-5	1.0E-5	)
		(	0.999	9.9E-4	9.0E-6	1.0E-6	))
		((	0.9	0.07	0.02	0.01	)
		(	0.95	0.04	0.007	0.003	)
		(	0.97	0.025	0.003	0.002	)
		(	0.99	0.007	0.002	0.001	)))
		(((	0.5000000000000001	0.20000000000000004	0.20000000000000004	0.10000000000000002	)
		(	0.8	0.15	0.03	0.02	)
		(	0.95	0.02	0.02	0.01	)
		(	0.99	0.007	0.002	0.001	))
		((	0.5000000000000001	0.20000000000000004	0.20000000000000004	0.10000000000000002	)
		(	0.8	0.15	0.03	0.02	)
		(	0.95	0.02	0.02	0.01	)
		(	0.99	0.007	0.002	0.001	))
		((	0.3	0.3	0.2	0.2	)
		(	0.5000000000000001	0.20000000000000004	0.20000000000000004	0.10000000000000002	)
		(	0.9	0.07	0.02	0.01	)
		(	0.95	0.03	0.01	0.01	)))
		(((	0.3	0.3	0.2	0.2	)
		(	0.5000000000000001	0.20000000000000004	0.20000000000000004	0.10000000000000002	)
		(	0.9	0.07	0.02	0.01	)
		(	0.95	0.03	0.01	0.01	))
		((	0.3	0.3	0.2	0.2	)
		(	0.5000000000000001	0.20000000000000004	0.20000000000000004	0.10000000000000002	)
		(	0.9	0.07	0.02	0.01	)
		(	0.95	0.03	0.01	0.01	))
		((	0.2	0.2	0.3	0.3	)
		(	0.3	0.3	0.2	0.2	)
		(	0.6	0.3	0.07	0.03	)
		(	0.9	0.05	0.03	0.02	))));
}
potential ( RuggedAuto | MakeModel VehicleYear )
{
	data = (((	0.95	0.04	0.01	)
		(	0.95	0.04	0.01	))
		((	0.5	0.5	0.0	)
		(	0.9	0.1	0.0	))
		((	0.2	0.6	0.2	)
		(	0.05	0.55	0.4	))
		((	0.1	0.6	0.3	)
		(	0.1	0.6	0.3	))
		((	0.05	0.55	0.4	)
		(	0.05	0.55	0.4	)));
}
potential ( DrivHist | DrivingSkill RiskAversion )
{
	data = (((	0.001	0.004	0.995	)
		(	0.002	0.008	0.99	)
		(	0.03	0.15	0.82	)
		(	0.3	0.3	0.4	))
		((	0.1	0.3	0.6	)
		(	0.5	0.3	0.2	)
		(	0.9	0.07	0.03	)
		(	0.95	0.04	0.01	))
		((	0.3	0.3	0.4	)
		(	0.6000000000000001	0.30000000000000004	0.10000000000000002	)
		(	0.99	0.009999	1.0E-6	)
		(	0.999998	1.0E-6	1.0E-6	)));
}
potential ( HomeBase | RiskAversion SocioEcon )
{
	data = (((	1.0E-6	0.8	0.049999	0.15	)
		(	0.15	0.8	0.04	0.01	)
		(	0.35	0.6	0.04	0.01	)
		(	0.489999	0.5	1.0E-6	0.01	))
		((	1.0E-6	0.8	0.05	0.149999	)
		(	0.01	0.25	0.6	0.14	)
		(	0.19999999999999996	0.3999999999999999	0.29999999999999993	0.09999999999999998	)
		(	0.95	1.0E-6	1.0E-6	0.049998	))
		((	1.0E-6	0.8	0.05	0.149999	)
		(	0.29999900000000007	1.0000000000000002E-6	0.6000000000000001	0.10000000000000002	)
		(	0.5	1.0E-6	0.4	0.099999	)
		(	0.85	1.0E-6	0.001	0.148999	))
		((	1.0E-6	0.8	0.05	0.149999	)
		(	0.95	1.0E-6	0.024445	0.025554	)
		(	0.999997	1.0E-6	1.0E-6	1.0E-6	)
		(	0.999997	1.0E-6	1.0E-6	1.0E-6	)));
}
potential ( ThisCarDam | Accident RuggedAuto )
{
	data = (((	1.0	0.0	0.0	0.0	)
		(	1.0	0.0	0.0	0.0	)
		(	1.0	0.0	0.0	0.0	))
		((	0.001	0.9	0.098	0.001	)
		(	0.2	0.75	0.049999	1.0E-6	)
		(	0.7	0.29	0.009999	1.0E-6	))
		((	1.0E-6	9.99E-4	0.7	0.299	)
		(	0.001	0.099	0.8	0.1	)
		(	0.05	0.6	0.3	0.05	))
		((	1.0E-6	9.0E-6	9.0E-5	0.9999	)
		(	1.0E-6	9.99E-4	0.009	0.99	)
		(	0.05	0.2	0.2	0.55	)));
}
potential ( Antilock | MakeModel VehicleYear )
{
	data = (((	0.9	0.1	)
		(	0.1	0.9	))
		((	0.001	0.999	)
		(	0.0	1.0	))
		((	0.4	0.6	)
		(	0.0	1.0	))
		((	0.99	0.01	)
		(	0.3	0.7	))
		((	0.99	0.01	)
		(	0.15	0.85	)));
}
potential ( OtherCarCost | Accident RuggedAuto )
{
	data = (((	1.0	0.0	0.0	0.0	)
		(	1.0	0.0	0.0	0.0	)
		(	1.0	0.0	0.0	0.0	))
		((	0.99	0.005	0.00499	1.0E-5	)
		(	0.9799657007349742	0.009999650007499737	0.009984651007488488	4.9998250037498686E-5	)
		(	0.95	0.03	0.01998	2.0E-5	))
		((	0.6	0.2	0.19998	2.0E-5	)
		(	0.5	0.2	0.29997	3.0E-5	)
		(	0.4	0.3	0.29996	4.0E-5	))
		((	0.2	0.4	0.39996	4.0E-5	)
		(	0.1	0.5	0.39994	6.0E-5	)
		(	0.005	0.55	0.4449	1.0E-4	)));
}
potential ( SocioEcon | Age )
{
	data = ((	0.4	0.4	0.19	0.01	)
		(	0.4	0.4	0.19	0.01	)
		(	0.5	0.2	0.29	0.01	));
}
potential ( Airbag | MakeModel VehicleYear )
{
	data = (((	1.0	0.0	)
		(	0.1	0.9	))
		((	1.0	0.0	)
		(	0.05	0.95	))
		((	1.0	0.0	)
		(	0.2	0.8	))
		((	1.0	0.0	)
		(	0.6	0.4	))
		((	1.0	0.0	)
		(	0.1	0.9	)));
}
potential ( AntiTheft | RiskAversion SocioEcon )
{
	data = (((	1.0E-6	0.999999	)
		(	1.0E-6	0.999999	)
		(	0.05	0.95	)
		(	0.5	0.5	))
		((	1.0E-6	0.999999	)
		(	1.0E-6	0.999999	)
		(	0.2	0.8	)
		(	0.5	0.5	))
		((	0.1	0.9	)
		(	0.3	0.7	)
		(	0.9	0.1	)
		(	0.8	0.2	))
		((	0.95	0.05	)
		(	0.999999	1.0E-6	)
		(	0.999999	1.0E-6	)
		(	0.999999	1.0E-6	)));
}
potential ( SeniorTrain | Age RiskAversion )
{
	data = (((	0.0	1.0	)
		(	0.0	1.0	)
		(	0.0	1.0	)
		(	0.0	1.0	))
		((	0.0	1.0	)
		(	0.0	1.0	)
		(	0.0	1.0	)
		(	0.0	1.0	))
		((	1.0E-6	0.999999	)
		(	1.0E-6	0.999999	)
		(	0.3	0.7	)
		(	0.9	0.1	)));
}
potential ( GoodStudent | SocioEcon Age )
{
	data = (((	0.1	0.9	)
		(	0.0	1.0	)
		(	0.0	1.0	))
		((	0.2	0.8	)
		(	0.0	1.0	)
		(	0.0	1.0	))
		((	0.5	0.5	)
		(	0.0	1.0	)
		(	0.0	1.0	))
		((	0.4	0.6	)
		(	0.0	1.0	)
		(	0.0	1.0	)));
}
potential ( Age | )
{
	data = (	0.2	0.6	0.2	);
}
potential ( PropCost | OtherCarCost ThisCarCost )
{
	data = (((	0.7	0.3	0.0	0.0	)
		(	0.0	0.95	0.05	0.0	)
		(	0.0	0.0	0.98	0.02	)
		(	0.0	0.0	0.0	1.0	))
		((	0.0	0.95	0.05	0.0	)
		(	0.0	0.6	0.4	0.0	)
		(	0.0	0.0	0.95	0.05	)
		(	0.0	0.0	0.0	1.0	))
		((	0.0	0.0	0.98	0.02	)
		(	0.0	0.0	0.8	0.2	)
		(	0.0	0.0	0.6	0.4	)
		(	0.0	0.0	0.0	1.0	))
		((	0.0	0.0	0.0	1.0	)
		(	0.0	0.0	0.0	1.0	)
		(	0.0	0.0	0.0	1.0	)
		(	0.0	0.0	0.0	1.0	)));
}
potential ( Mileage | )
{
	data = (	0.1	0.4	0.4	0.1	);
}
potential ( ILiCost | Accident )
{
	data = ((	1.0	0.0	0.0	0.0	)
		(	0.999	9.98E-4	1.0E-6	1.0E-6	)
		(	0.9	0.05	0.03	0.02	)
		(	0.8	0.1	0.06	0.04	));
}
potential ( DrivingSkill | Age SeniorTrain )
{
	data = (((	0.5	0.45	0.05	)
		(	0.5	0.45	0.05	))
		((	0.30000000000000004	0.6000000000000001	0.10000000000000002	)
		(	0.30000000000000004	0.6000000000000001	0.10000000000000002	))
		((	0.1	0.6	0.3	)
		(	0.4	0.5	0.1	)));
}
potential ( DrivQuality | DrivingSkill RiskAversion )
{
	data = (((	1.0	0.0	0.0	)
		(	1.0	0.0	0.0	)
		(	1.0	0.0	0.0	)
		(	1.0	0.0	0.0	))
		((	0.5	0.2	0.3	)
		(	0.3	0.4	0.3	)
		(	0.0	1.0	0.0	)
		(	0.0	0.8	0.2	))
		((	0.3	0.2	0.5	)
		(	0.01	0.01	0.98	)
		(	0.0	0.0	1.0	)
		(	0.0	0.0	1.0	)));
}
potential ( Accident | Antilock Mileage DrivQuality )
{
	data = ((((	0.7	0.2	0.07	0.03	)
		(	0.99	0.007	0.002	0.001	)
		(	0.999	7.0E-4	2.0E-4	1.0E-4	))
		((	0.4000000000000001	0.30000000000000004	0.20000000000000004	0.10000000000000002	)
		(	0.98	0.01	0.005	0.005	)
		(	0.995	0.003	0.001	0.001	))
		((	0.3	0.3	0.2	0.2	)
		(	0.97	0.02	0.007	0.003	)
		(	0.99	0.007	0.002	0.001	))
		((	0.2	0.2	0.3	0.3	)
		(	0.95	0.03	0.01	0.01	)
		(	0.985	0.01	0.003	0.002	)))
		(((	0.6	0.2	0.1	0.1	)
		(	0.98	0.01	0.005	0.005	)
		(	0.995	0.003	0.001	0.001	))
		((	0.3	0.2	0.2	0.3	)
		(	0.96	0.02	0.015	0.005	)
		(	0.99	0.007	0.002	0.001	))
		((	0.2	0.2	0.2	0.4	)
		(	0.95	0.03	0.015	0.005	)
		(	0.98	0.01	0.005	0.005	))
		((	0.1	0.1	0.3	0.5	)
		(	0.94	0.03	0.02	0.01	)
		(	0.98	0.01	0.007	0.003	))));
}
potential ( Theft | AntiTheft HomeBase CarValue )
{
	data = ((((	1.0E-6	0.999999	)
		(	2.0E-6	0.999998	)
		(	3.0E-6	0.999997	)
		(	2.0E-6	0.999998	)
		(	1.0E-6	0.999999	))
		((	5.0E-4	0.9995	)
		(	0.002	0.998	)
		(	0.005	0.995	)
		(	0.005	0.995	)
		(	1.0E-6	0.999999	))
		((	1.0E-5	0.99999	)
		(	1.0E-4	0.9999	)
		(	3.0E-4	0.9997	)
		(	3.0E-4	0.9997	)
		(	1.0E-6	0.999999	))
		((	1.0E-5	0.99999	)
		(	2.0E-5	0.99998	)
		(	5.0E-5	0.99995	)
		(	5.0E-5	0.99995	)
		(	1.0E-6	0.999999	)))
		(((	1.0E-6	0.999999	)
		(	2.0E-6	0.999998	)
		(	3.0E-6	0.999997	)
		(	2.0E-6	0.999998	)
		(	1.0E-6	0.999999	))
		((	0.001	0.999	)
		(	0.005	0.995	)
		(	0.01	0.99	)
		(	0.01	0.99	)
		(	1.0E-6	0.999999	))
		((	1.0E-5	0.99999	)
		(	2.0E-4	0.9998	)
		(	5.0E-4	0.9995	)
		(	5.0E-4	0.9995	)
		(	1.0E-6	0.999999	))
		((	1.0E-5	0.99999	)
		(	1.0E-4	0.9999	)
		(	2.0E-4	0.9998	)
		(	2.0E-4	0.9998	)
		(	1.0E-6	0.999999	))));
}
potential ( Cushioning | RuggedAuto Airbag )
{
	data = (((	0.5	0.3	0.2	0.0	)
		(	0.7	0.3	0.0	0.0	))
		((	0.0	0.1	0.6	0.3	)
		(	0.1	0.6	0.3	0.0	))
		((	0.0	0.0	0.0	1.0	)
		(	0.0	0.0	0.7	0.3	)));
}
potential ( RiskAversion | Age SocioEcon )
{
	data = (((	0.020000000000000004	0.5800000000000001	0.30000000000000004	0.10000000000000002	)
		(	0.02	0.38	0.5	0.1	)
		(	0.02	0.48	0.4	0.1	)
		(	0.020000000000000004	0.5800000000000001	0.30000000000000004	0.10000000000000002	))
		((	0.015	0.285	0.5	0.2	)
		(	0.015	0.185	0.6	0.2	)
		(	0.015	0.285	0.5	0.2	)
		(	0.015	0.285	0.4	0.3	))
		((	0.01	0.09	0.4	0.5	)
		(	0.01	0.04	0.35	0.6	)
		(	0.01	0.09	0.4	0.5	)
		(	0.01	0.09	0.4	0.5	)));
}
potential ( OtherCar | SocioEcon )
{
	data = ((	0.5	0.5	)
		(	0.8	0.2	)
		(	0.9	0.1	)
		(	0.95	0.05	));
}
potential ( CarValue | MakeModel VehicleYear Mileage )
{
	data = ((((	0.0	0.1	0.8	0.09	0.01	)
		(	0.0	0.1	0.8	0.09	0.01	)
		(	0.0	0.1	0.8	0.09	0.01	)
		(	0.0	0.1	0.8	0.09	0.01	))
		((	0.03	0.3	0.6	0.06	0.01	)
		(	0.16	0.5	0.3	0.03	0.01	)
		(	0.4	0.47	0.1	0.02	0.01	)
		(	0.9	0.06	0.02	0.01	0.01	)))
		(((	0.1	0.8	0.1	0.0	0.0	)
		(	0.1	0.8	0.1	0.0	0.0	)
		(	0.1	0.8	0.1	0.0	0.0	)
		(	0.1	0.8	0.1	0.0	0.0	))
		((	0.25	0.7	0.05	0.0	0.0	)
		(	0.7	0.2999	1.0E-4	0.0	0.0	)
		(	0.99	0.009999	1.0E-6	0.0	0.0	)
		(	0.999998	1.0E-6	1.0E-6	0.0	0.0	)))
		(((	0.0	0.1	0.9	0.0	0.0	)
		(	0.0	0.1	0.9	0.0	0.0	)
		(	0.0	0.1	0.9	0.0	0.0	)
		(	0.0	0.1	0.9	0.0	0.0	))
		((	0.2	0.3	0.5	0.0	0.0	)
		(	0.5	0.3	0.2	0.0	0.0	)
		(	0.7000000000000001	0.20000000000000004	0.10000000000000002	0.0	0.0	)
		(	0.99	0.009999	1.0E-6	0.0	0.0	)))
		(((	0.0	0.0	0.0	1.0	0.0	)
		(	0.0	0.0	0.0	1.0	0.0	)
		(	0.0	0.0	0.0	1.0	0.0	)
		(	0.0	0.0	0.0	1.0	0.0	))
		((	0.01	0.09	0.2	0.7	0.0	)
		(	0.05	0.15	0.3	0.5	0.0	)
		(	0.1	0.3	0.3	0.3	0.0	)
		(	0.2	0.2	0.3	0.3	0.0	)))
		(((	0.0	0.0	0.0	0.0	1.0	)
		(	0.0	0.0	0.0	0.0	1.0	)
		(	0.0	0.0	0.0	0.0	1.0	)
		(	0.0	0.0	0.0	0.0	1.0	))
		((	1.0E-6	1.0E-6	1.0E-6	1.0E-6	0.999996	)
		(	1.0E-6	1.0E-6	1.0E-6	1.0E-6	0.999996	)
		(	1.0E-6	1.0E-6	1.0E-6	1.0E-6	0.999996	)
		(	1.0E-6	1.0E-6	1.0E-6	1.0E-6	0.999996	))));
}
potential ( MakeModel | SocioEcon RiskAversion )
{
	data = (((	0.1	0.7	0.2	0.0	0.0	)
		(	0.1	0.7	0.2	0.0	0.0	)
		(	0.1	0.7	0.2	0.0	0.0	)
		(	0.1	0.7	0.2	0.0	0.0	))
		((	0.15	0.2	0.65	0.0	0.0	)
		(	0.15	0.2	0.65	0.0	0.0	)
		(	0.15	0.2	0.65	0.0	0.0	)
		(	0.15	0.2	0.65	0.0	0.0	))
		((	0.2	0.05	0.3	0.45	0.0	)
		(	0.2	0.05	0.3	0.45	0.0	)
		(	0.2	0.05	0.3	0.45	0.0	)
		(	0.2	0.05	0.3	0.45	0.0	))
		((	0.3	0.01	0.09	0.4	0.2	)
		(	0.3	0.01	0.09	0.4	0.2	)
		(	0.3	0.01	0.09	0.4	0.2	)
		(	0.3	0.01	0.09	0.4	0.2	)));
}
