net
{
}

node DrivHist
{
	states = ("Zero" "One" "Many" );
}

node Antilock
{
	states = ("True" "False" );
}

node Age
{
	states = ("Adolescent" "Adult" "Senior" );
}

node OtherCar
{
	states = ("True" "False" );
}

node VehicleYear
{
	states = ("Current" "Older" );
}

node PropCost
{
	states = ("Thousand" "TenThou" "HundredThou" "Million" );
}

node DrivQuality
{
	states = ("Poor" "Normal" "Excellent" );
}

node HomeBase
{
	states = ("Secure" "City" "Suburb" "Rural" );
}

node SeniorTrain
{
	states = ("True" "False" );
}

node Mileage
{
	states = ("FiveThou" "TwentyThou" "FiftyThou" "Domino" );
}

node GoodStudent
{
	states = ("True" "False" );
}

node Airbag
{
	states = ("True" "False" );
}

node MakeModel
{
	states = ("SportsCar" "Economy" "FamilySedan" "Luxury" "SuperLuxury" );
}

potential ( DrivHist | PropCost )
{
	data = 
(
	(0.6751927119831815 0.11615276804484934 0.20865451997196915 )
	(0.5538912406382286 0.12732009117551285 0.31878866818625856 )
	(0.15789473684210525 0.15601503759398497 0.6860902255639098 )
	(0.17159763313609466 0.16568047337278108 0.6627218934911243 ))
;
}

potential ( Antilock | PropCost )
{
	data = 
(
	(0.21885403889959698 0.781145961100403 )
	(0.1778501628664495 0.8221498371335505 )
	(0.20319849482596425 0.7968015051740357 )
	(0.19047619047619047 0.8095238095238095 ))
;
}

potential ( Age | PropCost )
{
	data = 
(
	(0.1760686755430974 0.6072179397337071 0.2167133847231955 )
	(0.20807554542494303 0.597525236079453 0.19439921849560404 )
	(0.3223684210526316 0.5347744360902256 0.14285714285714285 )
	(0.3136094674556213 0.5680473372781065 0.11834319526627218 ))
;
}

potential ( OtherCar | PropCost )
{
	data = 
(
	(0.699491852111442 0.3005081478885579 )
	(0.6785016286644951 0.3214983713355049 )
	(0.7046095954844779 0.2953904045155221 )
	(0.7202380952380952 0.27976190476190477 ))
;
}

potential ( VehicleYear | PropCost )
{
	data = 
(
	(0.36674259681093396 0.6332574031890661 )
	(0.3289902280130293 0.6710097719869706 )
	(0.39416745061147695 0.605832549388523 )
	(0.4226190476190476 0.5773809523809523 ))
;
}

potential ( PropCost | )
{
	data = 

	(0.5703718512594962 0.30677728908436624 0.10615753698520591 0.016693322670931626 );
}

potential ( DrivQuality | PropCost )
{
	data = 
(
	(0.23703573931324456 0.5304835318850736 0.23248072880168186 )
	(0.39563660045587756 0.42917616411592313 0.17518723542819928 )
	(0.9492481203007519 0.041353383458646614 0.009398496240601503 )
	(0.9467455621301775 0.04142011834319527 0.011834319526627219 ))
;
}

potential ( HomeBase | PropCost )
{
	data = 
(
	(0.278682781572955 0.36188474338763355 0.24242424242424243 0.11700823261516903 )
	(0.2548828125 0.4176432291666667 0.224609375 0.10286458333333333 )
	(0.21690140845070421 0.38779342723004695 0.28450704225352114 0.1107981220657277 )
	(0.25882352941176473 0.34705882352941175 0.3 0.09411764705882353 ))
;
}

potential ( SeniorTrain | PropCost )
{
	data = 
(
	(0.13895216400911162 0.8610478359908884 )
	(0.11172638436482085 0.8882736156351791 )
	(0.04609595484477893 0.9539040451552211 )
	(0.02976190476190476 0.9702380952380952 ))
;
}

potential ( Mileage | PropCost )
{
	data = 
(
	(0.12156244526186723 0.40374846733228237 0.3890348572429497 0.08565423016290068 )
	(0.10611979166666667 0.3889973958333333 0.4049479166666667 0.09993489583333333 )
	(0.04225352112676056 0.37464788732394366 0.4431924882629108 0.13990610328638498 )
	(0.041176470588235294 0.37058823529411766 0.4176470588235294 0.17058823529411765 ))
;
}

potential ( GoodStudent | PropCost )
{
	data = 
(
	(0.040827054494480465 0.9591729455055196 )
	(0.03615635179153094 0.963843648208469 )
	(0.08372530573847602 0.916274694261524 )
	(0.07738095238095238 0.9226190476190477 ))
;
}

potential ( Airbag | PropCost )
{
	data = 
(
	(0.4457683546521815 0.5542316453478184 )
	(0.4107491856677524 0.5892508143322476 )
	(0.4825964252116651 0.5174035747883349 )
	(0.48214285714285715 0.5178571428571429 ))
;
}

potential ( MakeModel | PropCost )
{
	data = 
(
	(0.14483362521891419 0.36952714535901926 0.376707530647986 0.10665499124343257 0.002276707530647986 )
	(0.14155548324113246 0.40514155548324116 0.3641392775789131 0.08656036446469248 0.0026033192320208264 )
	(0.1651031894934334 0.31613508442776733 0.4174484052532833 0.09849906191369606 0.0028142589118198874 )
	(0.1871345029239766 0.2807017543859649 0.4444444444444444 0.06432748538011696 0.023391812865497075 ))
;
}


